phil,-0.06472130119999998,-0.002822210941,-0.08044919222000001,0.287299961,-0.040466662490000006,0.014736241119999998,-0.35690540100000007,0.25447648799999995,0.018161667500000003,0.13620370600000004,-0.15512846399999997,0.199340463,-0.169156772,-0.124906465,-0.09499064830000001,-0.003974338295,0.194870362,0.10084311900000001,-0.040800966300000005,-0.1256992025,-0.142321959,2.3940480419999997e-05,-0.07188544645,0.17910528200000003,-0.0295000989,-0.16588428600000002,-0.23764468700000002,-0.0751110762,-0.036815126239999996,0.13125501599999997,-0.140041828,0.08797252476,-0.05728473962000001,0.138981286,0.011921927259999998,-0.05013114324000001,-0.25678575000000003,-0.008315319662,0.07228811830000001,-0.017897108599999996,0.0639630616,0.05033527388999999,-0.279349625,-0.11576841150000002,0.10571029800000001,-0.009549106007,-0.07598316144999999,0.139799789,0.24767212599999994,-0.15656979399999998
arden,-0.06472130044999999,-0.0028222133860000003,-0.08044919296000001,0.287299961,-0.040466659499999995,0.01473624093,-0.35690540100000007,0.25447648799999995,0.018161667500000003,0.13620370600000004,-0.15512846399999997,0.199340463,-0.16915677350000002,-0.124906465,-0.09499064830000001,-0.003974337828999999,0.19487035749999998,0.10084311530000001,-0.040800966300000005,-0.1256991965,-0.142321959,2.393717058e-05,-0.07188544945,0.17910528200000003,-0.0295000989,-0.16588428600000002,-0.23764468700000002,-0.0751110762,-0.036815126239999996,0.13125501599999997,-0.140041828,0.08797252698,-0.05728473476,0.138981286,0.011921927359999997,-0.05013114476,-0.25678575000000003,-0.008315317984,0.07228811830000001,-0.017897108599999996,0.06396306235,0.050335274650000005,-0.279349622,-0.115768413,0.10571029800000001,-0.009549105260999998,-0.07598315472999999,0.139799789,0.24767212599999994,-0.15656979399999998
greg,-0.06472130044999999,-0.002822212967,-0.08044919296000001,0.287299961,-0.04046665839000001,0.014736241109999998,-0.35690540100000007,0.25447648799999995,0.018161667500000003,0.13620370600000004,-0.15512846699999996,0.199340463,-0.16915676899999998,-0.124906465,-0.09499064682000001,-0.003974337457,0.19487034849999998,0.1008431161,-0.040800966300000005,-0.12569919349999997,-0.142321959,2.393551566e-05,-0.07188545095000001,0.17910528200000003,-0.0295000989,-0.16588428600000002,-0.23764468700000002,-0.0751110762,-0.03681512698,0.131255019,-0.140041828,0.08797252846,-0.05728473104,0.13898129050000002,0.011921927629999999,-0.050131145519999996,-0.25678575000000003,-0.008315316494,0.07228811830000001,-0.017897108599999996,0.06396306085,0.05033527167,-0.279349625,-0.11576841000000002,0.10571029800000001,-0.009549103117,-0.07598315323999999,0.139799789,0.24767212599999994,-0.15656979399999998
