phil,0.11759561569999999,-0.14036260590000002,0.41999724149999995,-0.031243134789999998,0.06713273306999999,-0.11894113449999999,-0.1599356381,0.2688159555,0.2782718353,0.3362198652,-0.1342182947,0.2717760209,0.0016420332437000005,0.4680743441,-0.1661718336,0.1413339211,-0.1216993107,0.2472366772,-0.03821382224000001,-0.20321526729999997
arden,0.11491078660000001,-0.1373893935,0.41488762,-0.024316324519999998,0.06999599394000001,-0.1064240359,-0.16618591530000001,0.2781709832,0.2773747616,0.3367517988,-0.1331788213,0.2785184428,-0.0017281172301999998,0.46433602809999996,-0.17449445850000003,0.1443991849,-0.11866399720000001,0.24762761810000003,-0.03581174029,-0.20481193409999995
greg,0.1516453548,-0.15810372390000002,0.4162178243,-0.00034233970049999985,0.0847033095,-0.11745852239999999,-0.19493903580000002,0.2806834433,0.2662631427,0.3581282886,-0.1572140851,0.25298113270000006,-0.03223443528,0.4429893849999999,-0.14026200239999997,0.1178064507,-0.07843836364,0.2506871644,-0.03387773298,-0.2104912005
