phil,0.15641856399999998,-0.070994605,-0.040239773,0.07288755,-0.058248606999999994,0.284816818,-0.25135253400000007,0.35571617000000005,0.28961207800000005,-0.167981514,0.11019762699999998,-0.128802569,-0.126929518,0.126800175,-0.19601522500000002,-0.013269203000000002,0.130308504,0.178401831,-0.185236318,-0.08912425399999999
arden,0.12792588,-0.0629008451,-0.06934636120000001,0.08763475359999999,-0.0885895222,0.269713382,-0.298128979,0.465248682,0.307884114,-0.222753216,0.13837927200000003,-0.10178173099999999,-0.203919739,0.1566564258,-0.224669646,-0.0875915018233,0.14015595799999997,0.27082896599999995,-0.222918357,-0.1545264753
greg,-0.28301137600000004,0.11834323489999998,-0.017812805812999995,-0.15510239,0.08537102900000001,-0.327513179,0.26269211000000003,-0.33361450400000003,-0.27100714800000003,0.253295953,-0.10539544199999999,0.191525191,0.07476187710000001,-0.17100995400000002,0.20249551400000004,-0.052068599699999996,-0.14876315,-0.14657683999999999,0.17940325299999998,0.12220113899999999
