phil,0.13521396,-0.027764240000000003,-0.32218543000000005,-0.01931246,-0.16095605,-0.11081295,-0.09854502,0.04067438,-0.10494884000000002,-0.18407908000000003,0.09198620999999998,-0.12292168,-0.05669140000000002,0.038005840000000006,-0.11241273999999998,0.07224259,-0.16162070000000003,-0.16831193999999997,-0.05070422000000001,-0.21710373,0.0722762,-0.08013497999999998,-0.13219710999999998,0.19279349000000004,-0.01183526,0.02511854,-0.06182800000000001,0.11546609999999999,-0.03324833,0.2743842,-0.08271284,0.04180751,-0.07450417,0.07128672000000001,0.21153720000000004,0.05538448,0.12294015999999999,0.09166048000000002,0.06783657,-0.03945886999999999,0.25871043999999993,0.19669749,-0.12400617,-0.26719245,-0.24428979,0.2533245700000001,-0.14063154,-0.09047008,-0.16493045999999997,-0.05789438000000001
arden,0.13521396,-0.027764240000000003,-0.32218543000000005,-0.01931246,-0.16095605,-0.11081295,-0.09854502,0.04067438,-0.10494884000000002,-0.18407908000000003,0.09198620999999998,-0.12292168,-0.05669140000000002,0.038005840000000006,-0.11241273999999998,0.07224259,-0.16162070000000003,-0.16831193999999997,-0.05070422000000001,-0.21710373,0.0722762,-0.08013497999999998,-0.13219710999999998,0.19279349000000004,-0.01183526,0.02511854,-0.06182800000000001,0.11546609999999999,-0.03324833,0.2743842,-0.08271284,0.04180751,-0.07450417,0.07128672000000001,0.21153720000000004,0.05538448,0.12294015999999999,0.09166048000000002,0.06783657,-0.03945886999999999,0.25871043999999993,0.19669749,-0.12400617,-0.26719245,-0.24428979,0.2533245700000001,-0.14063154,-0.09047008,-0.16493045999999997,-0.05789438000000001
greg,0.13521396,-0.027764240000000003,-0.32218543000000005,-0.01931246,-0.16095605,-0.11081295,-0.09854502,0.04067438,-0.10494884000000002,-0.18407908000000003,0.09198620999999998,-0.12292168,-0.05669140000000002,0.038005840000000006,-0.11241273999999998,0.07224259,-0.16162070000000003,-0.16831193999999997,-0.05070422000000001,-0.21710373,0.0722762,-0.08013497999999998,-0.13219710999999998,0.19279349000000004,-0.01183526,0.02511854,-0.06182800000000001,0.11546609999999999,-0.03324833,0.2743842,-0.08271284,0.04180751,-0.07450417,0.07128672000000001,0.21153720000000004,0.05538448,0.12294015999999999,0.09166048000000002,0.06783657,-0.03945886999999999,0.25871043999999993,0.19669749,-0.12400617,-0.26719245,-0.24428979,0.2533245700000001,-0.14063154,-0.09047008,-0.16493045999999997,-0.05789438000000001
