phil,0.40634784,-0.40085715,-0.25740433,-0.177371,-0.14056651,0.09137081,-0.21984148,-0.05253572,0.02492732,0.17509459,-0.25672993,0.41282532,0.21417882,0.23968402,0.22325325,0.02626414,-0.2609561,-0.01015819,0.06690228,0.05599154
arden,0.40634784,-0.40085715,-0.25740433,-0.177371,-0.14056653,0.09137081,-0.21984148,-0.05253571,0.02492732,0.17509459,-0.25672993,0.41282532,0.21417882,0.23968402,0.22325325,0.02626414,-0.2609561,-0.01015819,0.06690228,0.05599154
greg,0.40634787,-0.40085718,-0.25740433,-0.17737101,-0.14056653,0.09137082,-0.2198415,-0.05253571,0.02492733,0.1750946,-0.25672993,0.41282535,0.21417883,0.23968403,0.22325327,0.02626416,-0.26095614,-0.01015819,0.06690229,0.05599153
